encog,BasicNetwork,java,3.4.0,1,63651491526818
[BASIC]
[BASIC:PARAMS]
[BASIC:NETWORK]
beginTraining=0
connectionLimit=0
contextTargetOffset=0,0,0
contextTargetSize=0,0,0
endTraining=2
hasContext=f
inputCount=12
layerCounts=2,20,13
layerFeedCounts=2,19,12
layerContextCount=0,0,0
layerIndex=0,2,22
output=-0.353473928792672,0.326976941342214,0.995684525093325,-0.667216613129069,0.821368964247456,-0.561146384997202,0.785697840243929,0.0722612400332776,-0.726193782617744,-0.839482329241526,0.0258745519264727,0.821702424085287,0.941541188216719,-0.983014426018335,0.0741641376350257,-0.973329726969051,-1,-0.650376081319733,0.0443769838029755,1,0.913722296410428,1,-1,-1,-1,-1,-1,-1,-0.826086956521739,-1,-0.8,-1,-1,-1,1
outputCount=2
weightIndex=0,40,287
weights=-0.94305149649412,0.20540193977653,-0.677654879948895,1.12530406359769,-0.032597429575409,0.281165133962205,0.15982213948554,-0.0236056872642858,0.320070737156592,0.802927406394844,-0.117312857470155,-0.3301907113673,-0.177285291271792,-0.781102190635797,-0.378892649607217,0.172746197056154,0.149046233692732,0.281298068948695,-0.753542051583059,0.501000904257992,-0.0274642931994292,-0.68351657458009,0.0500437875751085,-0.706350173082513,-0.126012898364349,-0.587633873033159,0.646413473569563,-0.131764682759334,-0.511669083979845,-0.275127714969126,0.55261962955372,-0.900910300366766,0.128614300347793,-0.472804496029528,0.622024539471854,-0.904215776539421,-0.354310485951739,-0.330866792914729,-0.519991789085694,-0.807140576353135,0.884224140452094,0.97675581689936,0.856367636854932,-0.175681740172291,-0.152021137181911,-0.558601575277326,-1.53992091206541,-2.30693682961258,0.661966665911241,-0.0428410671601719,-0.924764336562372,-0.814575919670748,0.0676572481934703,0.980431978285607,-0.356067660685899,0.105521911038984,-0.737011818812051,0.0699470925728516,-0.271954431578778,0.451480357864347,-0.858357174975315,0.578634143833279,0.249703753786738,0.296134283138691,0.292177617616817,-0.199314613665784,-1.05321365136349,0.679295184825475,0.688465610443712,-0.471266394518687,0.376053045237729,-0.796084193739366,-1.12553855414129,0.376324058179685,-0.67223065732129,0.719022320477105,0.787898970385253,-0.286557305986919,0.713371024309097,0.950644018737157,-0.653686850170459,0.562954436484427,-0.111883751408476,-0.328899254483923,-0.772476693283391,0.124175838012928,-0.995792991253785,0.956292572622973,0.400784270342471,0.621472339900896,0.403081481207511,0.309306211221973,0.299220633473738,0.3217387288088,-0.0998543979926139,0.296337825721038,-0.616522649253279,-0.0010552058357695,-0.564021969650607,-0.0578498469811206,0.624917674742057,-0.853101347650542,-0.372469927716366,0.950603856879373,0.961139408982207,0.304630572455049,0.696946337549208,0.289250307256689,-0.155800631936795,0.506870140727176,-0.400307829508608,-0.27950158711667,-0.84317791577381,-0.205427524392475,0.106580705006155,-0.462801365991745,-0.104107866899675,-0.384764771322334,0.238692790975434,-0.242628862007575,0.967754683571071,-0.315948594253248,0.178642129862331,-0.236080957432964,-0.292177548514479,-0.140484790127712,0.290116932633626,-0.333553659271024,-0.752097371959639,0.692395242507104,-0.873206662674347,0.683667710300163,-0.621883439336475,0.150861592033131,0.02332923734008,0.812432890050276,0.603550491980961,-0.338010430147581,0.808400629340859,-0.297934895674706,0.215043714400014,0.808067853784182,-0.760454554611655,0.986024484467626,0.356778763132338,0.980104715254396,-0.364547712754296,0.00655963940684028,-0.834667374602641,-0.851561273156548,0.428092257824979,-0.0885199508639379,-0.701773972411345,0.827582215754253,-0.196771068253231,0.934151257989257,0.58721179287387,0.496527861269626,-0.347781907763041,-0.161068066863651,-0.644558828458261,-0.742277412343251,0.484701695824086,-0.353453093626564,0.750181392862264,-0.120687616467396,0.871431861224969,-0.339256874277653,-0.242263433790927,0.899139609860138,-0.638113653749566,-0.480341782614415,-0.197649914607935,0.746786994678668,-0.58483481207868,0.418339165525071,-0.0277502057901743,-0.450798082903997,-0.455944578904299,-0.56888457491845,0.5932511284286,-0.158967618650925,0.0425645676414633,-0.704806382518237,-0.486746264270454,0.0285848121866821,0.406243676155388,0.72038219867332,-0.13923542988411,-0.0420480485012076,0.391840301973422,-0.878377350921918,-0.315724825055741,0.949676391757343,1.57786002240486,-0.68936722815513,0.131799704119718,0.246907956843594,-0.774986658011774,-0.347782391451387,-0.517252013146311,0.667738388785257,0.00428513793641645,0.244417828455573,0.643629235349234,-0.598917586893556,-0.0000465077923202536,-0.384223191995991,-0.739600622621397,-0.684800238436042,0.771559330940024,-0.772828226927204,0.482439366362596,-0.227109605218048,1.01105107081106,0.944386023383286,0.103048090273824,0.0648646894510747,0.526273442869008,-0.193283309915879,0.323333165121692,0.0197557952120778,-0.498050840656534,1.68685830624105,1.12111585692227,0.353961616463155,0.662677964338787,1.37582085495769,1.89721909048956,0.289930662854867,1.18656648522697,-0.192823645999841,1.65460481106498,0.319747318245474,-11.8811087411369,0.146035291054108,-0.0275252895914294,-0.507851362733296,0.399172827956906,-0.439821835136197,0.38131259280853,1.06441578173297,0.541085636639028,0.144584323516481,0.251737140646214,0.238028046024138,-0.293794076882721,0.907396218065537,0.407648036177843,0.338861392794853,0.353886612587361,0.243438630137017,0.837176288526739,-0.543147014116786,-0.746911415591547,-0.402215195416887,0.401494610647187,0.434692892022963,-0.585593273378444,-0.637716794020559,0.195619634784895,-0.203082210388161,-1.18690141034849,-1.73292175477338,-1.24182243354435,-0.31140031862638,-3.28803299616202,-1.53060670736254,-1.88855153505603,-1.83781570624509,-0.988692841605211,-1.77343728240586,0.0559284924545747,11.3023425103643,-0.573208208823999,-0.945769420285312,0.642046828456066,0.0573591528296747,-0.83548808755254,0.546781185671872,0.0258615358562421,0.551635480408294,0.653239739118132,-0.699049107598288,-0.730765626509192,0.667381413885842,0.77449641193118
biasActivation=0,1,1
[BASIC:ACTIVATION]
"ActivationTANH"
"ActivationTANH"
"ActivationLinear"
